<?xml version="1.0"?>
<NeuralNetwork>
	<Layer>
		<Node>
			<Theta>0.5574455715462588</Theta>
			<Weight>0.08931045497168892</Weight>
			<Weight>-0.11210677652680932</Weight>
			<Weight>0.5690669678663718</Weight>
		</Node>
		<Node>
			<Theta>-0.3137536402137179</Theta>
			<Weight>-0.16807683236986715</Weight>
			<Weight>-0.2977982941126851</Weight>
			<Weight>0.004213587113292309</Weight>
		</Node>
		<Node>
			<Theta>-0.07603555978310625</Theta>
			<Weight>-0.1286549027526109</Weight>
			<Weight>0.054809169847301234</Weight>
			<Weight>-0.23471468090989683</Weight>
		</Node>
		<Node>
			<Theta>-0.16279319708387022</Theta>
			<Weight>-0.24171539098853687</Weight>
			<Weight>0.33197209536885613</Weight>
			<Weight>0.4767053941883813</Weight>
		</Node>
		<Node>
			<Theta>-0.024214998749040217</Theta>
			<Weight>0.16560663819292676</Weight>
			<Weight>-0.3183079354550144</Weight>
			<Weight>0.3412369302372418</Weight>
		</Node>
	</Layer>
	<Layer>
		<Node>
			<Theta>1.8456105710976016</Theta>
			<Weight>1.3210945943230201</Weight>
			<Weight>0.4975773520312617</Weight>
			<Weight>0.433092351429261</Weight>
			<Weight>0.9776679679815103</Weight>
			<Weight>0.45283423369147285</Weight>
		</Node>
		<Node>
			<Theta>0.06453762136043703</Theta>
			<Weight>-0.14875739043724062</Weight>
			<Weight>0.2534010284663313</Weight>
			<Weight>0.3138227138677363</Weight>
			<Weight>-0.1426637229978038</Weight>
			<Weight>-0.21716027661850848</Weight>
		</Node>
	</Layer>
</NeuralNetwork>
